100000
1	0.000000 -10.163196 -2.909142 0.000000 3.410511 0.000000 -4.416457 0.000000 -3.547134 5.296446 -12.120947 0.000000 0.000000 -6.610796 -8.322597 0.000000 0.000000 0.000000 -0.170821 0.349146 0.664143 0.000000 -4.827339 -2.321936 -6.601290 0.000000 0.000000 7.591795 -1.103562 0.000000 1.116283 0.000000 0.000000 0.000000 0.000000 2.762606 0.000000 0.000000 0.000000 0.000000 0.090306 -26.445869 0.000000 -0.643544 2.360462 2.274414 -10.902780 0.000000 0.000000 0.000000 0.119347 0.000000 -9.989834 5.483359 4.098116 -7.837012 0.000000 -2.346431 2.082644 0.000000 4.522767 -7.666618 -2.576894 4.681021 1.153818 0.000000 0.000000 0.000000 0.000000 0.000000 1.699989 0.684394 0.000000 -0.586497 0.000000 0.000000 -3.768939 -5.648116 -1.657762 0.814794 0.000000 -1.544954 -3.759799 0.000000 0.000000 0.000000 0.000000 0.000000 -2.858536 0.000000 0.000000 0.000000 0.000000 0.000000 0.000000 0.000000 0.000000 0.000000 0.000000 4.217669 0.000000 0.000000 4.051678 11.438433 0.000000 0.000000 0.000000 0.449520 0.000000 -0.274713 0.000000 0.000000 0.000000 0.255346 -4.118062 0.000000 -0.610520 0.000000 3.999895 3.696335 0.000000 -0.706799 -6.716310 1.138689 0.000000 0.000000 0.000000 1.600994 0.000000 0.000000 4.968036 0.272568 -6.345063 0.000000 1.094948 0.000000 0.000000 0.000000 2.286743 1.431692 0.000000 0.000000 0.000000 0.000000 -11.605240 0.000000 -0.935032 -3.337287 -1.013175 -4.049927 3.904778 0.944662 0.000000 0.000000 0.000000 0.000000 -1.595358 0.000000 0.901181 8.076632 4.280775 0.000000 0.000000 0.000000 -2.236120 -2.506002 0.000000 0.000000 1.631970 0.000000 -11.844121 0.000000 0.000000 0.869404 2.013905 0.000000 -1.557455 0.000000 3.819873 0.000000 -2.526251 1.788535 -2.275165 0.000000 0.000000 -1.418997 0.000000 0.000000 0.000000 1.673907 -12.314486 0.000000 3.130797 0.000000 0.002936 0.000000 4.138326 0.000000 0.669198 0.000000 -2.884376 0.000000 0.000000 0.000000 0.000000 4.448766 6.843261 4.032501 0.000000 0.738125 0.000000 0.000000 0.000000 -12.238620 0.000000 -4.906452 9.008290 0.000000 4.605215 -2.289987 0.000000 0.000000 -3.772344 0.000000 0.000000 0.000000 0.000000 0.000000 0.000000 0.000000 1.681228 -1.304827 0.000000 4.490788 1.012316 0.201339 0.000000 0.000000 0.000000 1.291472 0.000000 3.001145 0.000000 0.000000 0.000000 0.000000 -4.776763 0.000000 0.000000 0.000000 0.000000 7.710046 -4.466387 0.000000 0.000000 0.000000 0.000000 0.000000 0.000000 1.445521 0.000000 0.000000 5.074986 0.000000 -0.836786 0.000000 0.000000 3.160496 2.887516 -5.006153 2.670508 -1.613647 0.000000 0.605733 0.000000 0.000000 3.617540 0.000000 0.000000 0.000000 0.000000 0.534540 -0.502246 -4.859002 0.000000 0.000000 0.000000 0.000000 0.000000 0.000000 5.995306 -5.987632 0.000000 0.000000 0.000000 0.000000 0.000000 0.000000 0.000000 0.000000 0.000000 0.000000 0.000000 0.000000 -18.441214 -6.059521 0.000000 -10.377149 0.000000 3.486515 0.000000 0.000000 -1.349282 0.000000 0.000000 -1.885796 0.281208 1.939159 1.212358 0.000000 0.000000 0.000000 0.000000 0.000000 0.000000 2.288642 0.000000 1.100723 -6.128905 -1.019463 0.000000 0.000000 0.000000 0.000000 0.000000 0.865623 0.000000 0.000000 0.000000 1.213524 0.357152 3.551565 0.000000 0.000000 -2.035137 -0.859112 0.000000 2.211117 0.000000 0.000000 4.036628 -1.545478 0.000000 0.000000 0.000000 0.000000 0.000000 -4.188386 0.000000 0.000000 0.000000 0.555323 -0.533559 -6.601685 0.000000 -0.578265 0.000000 0.000000 4.799063 3.859134 -3.641488 0.000000 0.000000 -3.850846 -5.368934 0.000000 0.000000 0.928622 0.860139 0.000000 0.000000 0.000000 0.000000 0.000000 -0.388293 0.000000 0.000000 0.701038 0.000000 -1.789392 0.000000 5.497130 0.000000 -4.796912 0.000000 0.000000 0.550470 0.000000 0.000000 0.000000 0.487976 
